digraph Tree {
node [shape=box] ;
0 [label="OptimizedMultiplierHelper0.getValue() <= 1134.5\ngini = 0.8314\nsamples = 445\nvalue = [6369, 6526, 5517, 6081, 5558, 4686]"] ;
1 [label="BigInteger.add(a,b) <= 1780184.0\ngini = 0.5065\nsamples = 155\nvalue = [6369, 6469, 85, 0, 0, 0]"] ;
0 -> 1 [labeldistance=2.5, labelangle=45, headlabel="True"] ;
2 [label="OptimizedMultiplierHelper1.OptimizedMultiplierHelper1(a) <= 495.0\ngini = 0.0677\nsamples = 79\nvalue = [6295, 229, 0, 0, 0, 0]"] ;
1 -> 2 ;
3 [label="gini = 0.0068\nsamples = 62\nvalue = [5581, 19, 0, 0, 0, 0]"] ;
2 -> 3 ;
4 [label="gini = 0.3512\nsamples = 17\nvalue = [714, 210, 0, 0, 0, 0]"] ;
2 -> 4 ;
5 [label="BigInteger.add(a,b) <= 1816952.0\ngini = 0.0488\nsamples = 76\nvalue = [74, 6240, 85, 0, 0, 0]"] ;
1 -> 5 ;
6 [label="gini = 0.4872\nsamples = 2\nvalue = [42, 58, 0, 0, 0, 0]"] ;
5 -> 6 ;
7 [label="gini = 0.0366\nsamples = 74\nvalue = [32, 6182, 85, 0, 0, 0]"] ;
5 -> 7 ;
8 [label="OptimizedMultiplierHelper0.getValue() <= 2147.5\ngini = 0.7492\nsamples = 290\nvalue = [0, 57, 5432, 6081, 5558, 4686]"] ;
0 -> 8 [labeldistance=2.5, labelangle=-45, headlabel="False"] ;
9 [label="BigInteger.shiftLeft(a) <= 5003512.0\ngini = 0.5126\nsamples = 153\nvalue = [0, 57, 5432, 5924, 101, 0]"] ;
8 -> 9 ;
10 [label="gini = 0.093\nsamples = 72\nvalue = [0, 57, 5320, 214, 0, 0]"] ;
9 -> 10 ;
11 [label="gini = 0.07\nsamples = 81\nvalue = [0, 0, 112, 5710, 101, 0]"] ;
9 -> 11 ;
12 [label="OptimizedMultiplier.fastMultiply <= 2628.5\ngini = 0.5121\nsamples = 137\nvalue = [0, 0, 0, 157, 5457, 4686]"] ;
8 -> 12 ;
13 [label="gini = 0.0957\nsamples = 78\nvalue = [0, 0, 0, 157, 5316, 121]"] ;
12 -> 13 ;
14 [label="gini = 0.0581\nsamples = 59\nvalue = [0, 0, 0, 0, 141, 4565]"] ;
12 -> 14 ;
}