digraph Tree {
node [shape=box] ;
0 [label="image.BufferedImageOp.filter <= 0.5\ngini = 0.7891\nsamples = 481\nvalue = [8802, 11296, 10994, 3447, 3174, 3695]"] ;
1 [label="gini = 0.0222\nsamples = 89\nvalue = [8800, 0, 0, 0, 0, 100]"] ;
0 -> 1 [labeldistance=2.5, labelangle=45, headlabel="True"] ;
2 [label="lang.Math.sqrt <= 0.5\ngini = 0.7319\nsamples = 392\nvalue = [2, 11296, 10994, 3447, 3174, 3595]"] ;
0 -> 2 [labeldistance=2.5, labelangle=-45, headlabel="False"] ;
3 [label="image.OilFilter.filterPixels <= 0.5\ngini = 0.5634\nsamples = 219\nvalue = [2, 11258, 254, 3383, 116, 3595]"] ;
2 -> 3 ;
4 [label="math.Noise.noise3 <= 0.5\ngini = 0.3779\nsamples = 181\nvalue = [2, 11258, 254, 3383, 11, 0]"] ;
3 -> 4 ;
5 [label="image.BufferedImage.getType <= 0.5\ngini = 0.182\nsamples = 137\nvalue = [2, 11258, 143, 1093, 11, 0]"] ;
4 -> 5 ;
6 [label="image.Kernel.getKernelData <= 0.5\ngini = 0.2406\nsamples = 10\nvalue = [0, 0, 100, 696, 11, 0]"] ;
5 -> 6 ;
7 [label="gini = 0.0306\nsamples = 9\nvalue = [0, 0, 0, 696, 11, 0]"] ;
6 -> 7 ;
8 [label="gini = 0.0\nsamples = 1\nvalue = [0, 0, 100, 0, 0, 0]"] ;
6 -> 8 ;
9 [label="image.PixelUtils.combinePixels <= 0.5\ngini = 0.073\nsamples = 127\nvalue = [2, 11258, 43, 397, 0, 0]"] ;
5 -> 9 ;
10 [label="image.TransferFilter.makeTable <= 0.5\ngini = 0.0074\nsamples = 121\nvalue = [2, 11258, 40, 0, 0, 0]"] ;
9 -> 10 ;
11 [label="image.ColorModel.createCompatibleWritableRaster <= 0.5\ngini = 0.001\nsamples = 88\nvalue = [2, 8397, 2, 0, 0, 0]"] ;
10 -> 11 ;
12 [label="gini = 0.0\nsamples = 41\nvalue = [0, 4100, 0, 0, 0, 0]"] ;
11 -> 12 ;
13 [label="gini = 0.0019\nsamples = 47\nvalue = [2, 4297, 2, 0, 0, 0]"] ;
11 -> 13 ;
14 [label="image.SolarizeFilter.transferFunction <= 0.5\ngini = 0.0259\nsamples = 33\nvalue = [0, 2861, 38, 0, 0, 0]"] ;
10 -> 14 ;
15 [label="gini = 0.0198\nsamples = 20\nvalue = [0, 1782, 18, 0, 0, 0]"] ;
14 -> 15 ;
16 [label="gini = 0.0357\nsamples = 13\nvalue = [0, 1079, 20, 0, 0, 0]"] ;
14 -> 16 ;
17 [label="gini = 0.0149\nsamples = 6\nvalue = [0, 0, 3, 397, 0, 0]"] ;
9 -> 17 ;
18 [label="gini = 0.0882\nsamples = 44\nvalue = [0, 0, 111, 2290, 0, 0]"] ;
4 -> 18 ;
19 [label="gini = 0.0551\nsamples = 38\nvalue = [0, 0, 0, 0, 105, 3595]"] ;
3 -> 19 ;
20 [label="vecmath.Vector3f.dot <= 0.5\ngini = 0.3546\nsamples = 173\nvalue = [0, 38, 10740, 64, 3058, 0]"] ;
2 -> 20 ;
21 [label="image.ImageMath.mixColors <= 0.5\ngini = 0.0112\nsamples = 131\nvalue = [0, 38, 10740, 23, 0, 0]"] ;
20 -> 21 ;
22 [label="image.ImageMath.triangle <= 0.5\ngini = 0.0088\nsamples = 127\nvalue = [0, 38, 10554, 9, 0, 0]"] ;
21 -> 22 ;
23 [label="image.TwirlFilter.filter <= 0.5\ngini = 0.0134\nsamples = 70\nvalue = [0, 36, 5464, 1, 0, 0]"] ;
22 -> 23 ;
24 [label="image.CurlFilter.getPixel <= 0.5\ngini = 0.0118\nsamples = 35\nvalue = [0, 15, 2684, 1, 0, 0]"] ;
23 -> 24 ;
25 [label="gini = 0.0126\nsamples = 26\nvalue = [0, 11, 1888, 1, 0, 0]"] ;
24 -> 25 ;
26 [label="gini = 0.01\nsamples = 9\nvalue = [0, 4, 796, 0, 0, 0]"] ;
24 -> 26 ;
27 [label="gini = 0.0149\nsamples = 35\nvalue = [0, 21, 2780, 0, 0, 0]"] ;
23 -> 27 ;
28 [label="gini = 0.0039\nsamples = 57\nvalue = [0, 2, 5090, 8, 0, 0]"] ;
22 -> 28 ;
29 [label="gini = 0.1302\nsamples = 4\nvalue = [0, 0, 186, 14, 0, 0]"] ;
21 -> 29 ;
30 [label="gini = 0.0261\nsamples = 42\nvalue = [0, 0, 0, 41, 3058, 0]"] ;
20 -> 30 ;
}