digraph Tree {
node [shape=box] ;
0 [label="image.BufferedImage.getHeight <= 0.5\ngini = 0.7894\nsamples = 481\nvalue = [8702, 11196, 11192, 3355, 3075, 3995]"] ;
1 [label="gini = 0.0225\nsamples = 88\nvalue = [8700, 0, 0, 0, 0, 100]"] ;
0 -> 1 [labeldistance=2.5, labelangle=45, headlabel="True"] ;
2 [label="lang.Math.sqrt <= 0.5\ngini = 0.7323\nsamples = 393\nvalue = [2, 11196, 11192, 3355, 3075, 3895]"] ;
0 -> 2 [labeldistance=2.5, labelangle=-45, headlabel="False"] ;
3 [label="image.AbstractBufferedImageOp.getRGB <= 0.5\ngini = 0.5745\nsamples = 220\nvalue = [2, 11158, 353, 3291, 116, 3895]"] ;
2 -> 3 ;
4 [label="image.TransformFilter.filter <= 0.5\ngini = 0.3828\nsamples = 179\nvalue = [2, 11158, 353, 3291, 11, 0]"] ;
3 -> 4 ;
5 [label="image.BufferedImage.getType <= 0.5\ngini = 0.1951\nsamples = 136\nvalue = [2, 11158, 242, 1086, 11, 0]"] ;
4 -> 5 ;
6 [label="image.BicubicScalingFilter.filter <= 0.5\ngini = 0.3374\nsamples = 12\nvalue = [0, 0, 200, 789, 11, 0]"] ;
5 -> 6 ;
7 [label="gini = 0.0\nsamples = 2\nvalue = [0, 0, 200, 0, 0, 0]"] ;
6 -> 7 ;
8 [label="gini = 0.0271\nsamples = 10\nvalue = [0, 0, 0, 789, 11, 0]"] ;
6 -> 8 ;
9 [label="image.WholeImageFilter.transformSpace <= 0.5\ngini = 0.0577\nsamples = 124\nvalue = [2, 11158, 42, 297, 0, 0]"] ;
5 -> 9 ;
10 [label="image.TransferFilter.filter <= 0.5\ngini = 0.0075\nsamples = 120\nvalue = [2, 11158, 40, 0, 0, 0]"] ;
9 -> 10 ;
11 [label="image.AbstractBufferedImageOp.createCompatibleDestImage <= 0.5\ngini = 0.001\nsamples = 88\nvalue = [2, 8397, 2, 0, 0, 0]"] ;
10 -> 11 ;
12 [label="gini = 0.0018\nsamples = 48\nvalue = [2, 4397, 2, 0, 0, 0]"] ;
11 -> 12 ;
13 [label="gini = 0.0\nsamples = 40\nvalue = [0, 4000, 0, 0, 0, 0]"] ;
11 -> 13 ;
14 [label="image.SolarizeFilter.transferFunction <= 0.5\ngini = 0.0268\nsamples = 32\nvalue = [0, 2761, 38, 0, 0, 0]"] ;
10 -> 14 ;
15 [label="gini = 0.0198\nsamples = 20\nvalue = [0, 1782, 18, 0, 0, 0]"] ;
14 -> 15 ;
16 [label="gini = 0.0392\nsamples = 12\nvalue = [0, 979, 20, 0, 0, 0]"] ;
14 -> 16 ;
17 [label="gini = 0.0133\nsamples = 4\nvalue = [0, 0, 2, 297, 0, 0]"] ;
9 -> 17 ;
18 [label="gini = 0.0913\nsamples = 43\nvalue = [0, 0, 111, 2205, 0, 0]"] ;
4 -> 18 ;
19 [label="gini = 0.0511\nsamples = 41\nvalue = [0, 0, 0, 0, 105, 3895]"] ;
3 -> 19 ;
20 [label="image.TransferFilter.filterRGB <= 0.5\ngini = 0.3466\nsamples = 173\nvalue = [0, 38, 10839, 64, 2959, 0]"] ;
2 -> 20 ;
21 [label="image.SmearFilter.filterPixels <= 0.5\ngini = 0.0111\nsamples = 132\nvalue = [0, 38, 10839, 23, 0, 0]"] ;
20 -> 21 ;
22 [label="image.KaleidoscopeFilter.filter <= 0.5\ngini = 0.0088\nsamples = 128\nvalue = [0, 38, 10653, 9, 0, 0]"] ;
21 -> 22 ;
23 [label="image.CurlFilter.transformInverseHelper <= 0.5\ngini = 0.0134\nsamples = 70\nvalue = [0, 36, 5463, 1, 0, 0]"] ;
22 -> 23 ;
24 [label="lang.Math.atan2 <= 0.5\ngini = 0.0139\nsamples = 61\nvalue = [0, 32, 4667, 1, 0, 0]"] ;
23 -> 24 ;
25 [label="gini = 0.014\nsamples = 24\nvalue = [0, 11, 1688, 1, 0, 0]"] ;
24 -> 25 ;
26 [label="gini = 0.0139\nsamples = 37\nvalue = [0, 21, 2979, 0, 0, 0]"] ;
24 -> 26 ;
27 [label="gini = 0.01\nsamples = 9\nvalue = [0, 4, 796, 0, 0, 0]"] ;
23 -> 27 ;
28 [label="gini = 0.0038\nsamples = 58\nvalue = [0, 2, 5190, 8, 0, 0]"] ;
22 -> 28 ;
29 [label="gini = 0.1302\nsamples = 4\nvalue = [0, 0, 186, 14, 0, 0]"] ;
21 -> 29 ;
30 [label="gini = 0.027\nsamples = 41\nvalue = [0, 0, 0, 41, 2959, 0]"] ;
20 -> 30 ;
}