digraph Tree {
node [shape=box] ;
0 [label="OptimizedMultiplier.fastMultiply <= 1047.0\ngini = 0.8311\nsamples = 445\nvalue = [4891, 6844, 5731, 6283, 5968, 5078]"] ;
1 [label="BigInteger.add(a,b) <= 1516680.0\ngini = 0.5003\nsamples = 150\nvalue = [4891, 6809, 161, 1, 0, 0]"] ;
0 -> 1 [labeldistance=2.5, labelangle=45, headlabel="True"] ;
2 [label="BigInteger.add(a,b) <= 1352756.0\ngini = 0.1005\nsamples = 61\nvalue = [4765, 267, 0, 0, 0, 0]"] ;
1 -> 2 ;
3 [label="gini = 0.0304\nsamples = 51\nvalue = [4529, 71, 0, 0, 0, 0]"] ;
2 -> 3 ;
4 [label="gini = 0.4957\nsamples = 10\nvalue = [236, 196, 0, 0, 0, 0]"] ;
2 -> 4 ;
5 [label="OptimizedMultiplier.fastMultiply <= 526.5\ngini = 0.0817\nsamples = 89\nvalue = [126, 6542, 161, 1, 0, 0]"] ;
1 -> 5 ;
6 [label="gini = 0.4313\nsamples = 8\nvalue = [102, 227, 1, 0, 0, 0]"] ;
5 -> 6 ;
7 [label="gini = 0.0555\nsamples = 81\nvalue = [24, 6315, 160, 1, 0, 0]"] ;
5 -> 7 ;
8 [label="OptimizedMultiplier.fastMultiply <= 2106.0\ngini = 0.7492\nsamples = 295\nvalue = [0, 35, 5570, 6282, 5968, 5078]"] ;
0 -> 8 [labeldistance=2.5, labelangle=-45, headlabel="False"] ;
9 [label="OptimizedMultiplier.fastMultiply <= 1555.5\ngini = 0.5156\nsamples = 149\nvalue = [0, 35, 5570, 6067, 164, 0]"] ;
8 -> 9 ;
10 [label="gini = 0.0535\nsamples = 66\nvalue = [0, 35, 5478, 119, 0, 0]"] ;
9 -> 10 ;
11 [label="gini = 0.0799\nsamples = 83\nvalue = [0, 0, 92, 5948, 164, 0]"] ;
9 -> 11 ;
12 [label="OptimizedMultiplier.standardMultiply(a,b) <= 2613.5\ngini = 0.5167\nsamples = 146\nvalue = [0, 0, 0, 215, 5804, 5078]"] ;
8 -> 12 ;
13 [label="gini = 0.1283\nsamples = 86\nvalue = [0, 0, 0, 215, 5687, 197]"] ;
12 -> 13 ;
14 [label="gini = 0.0457\nsamples = 60\nvalue = [0, 0, 0, 0, 117, 4881]"] ;
12 -> 14 ;
}