digraph Tree {
node [shape=box] ;
0 [label="lang.Math.sqrt <= 0.5\ngini = 0.7904\nsamples = 481\nvalue = [8702, 10796, 11396, 3545, 3075, 3895]"] ;
1 [label="image.BufferedImageOp.filter <= 0.5\ngini = 0.7064\nsamples = 306\nvalue = [8702, 10758, 354, 3481, 116, 3895]"] ;
0 -> 1 [labeldistance=2.5, labelangle=45, headlabel="True"] ;
2 [label="gini = 0.0225\nsamples = 88\nvalue = [8700, 0, 0, 0, 0, 100]"] ;
1 -> 2 ;
3 [label="image.AbstractBufferedImageOp.getRGB <= 0.5\ngini = 0.5842\nsamples = 218\nvalue = [2, 10758, 354, 3481, 116, 3795]"] ;
1 -> 3 ;
4 [label="lang.Math.floor <= 0.5\ngini = 0.4001\nsamples = 178\nvalue = [2, 10758, 354, 3481, 11, 0]"] ;
3 -> 4 ;
5 [label="image.BufferedImage.getRaster <= 0.5\ngini = 0.2126\nsamples = 134\nvalue = [2, 10758, 243, 1186, 11, 0]"] ;
4 -> 5 ;
6 [label="image.BufferedImage.<init> <= 0.5\ngini = 0.3374\nsamples = 12\nvalue = [0, 0, 200, 789, 11, 0]"] ;
5 -> 6 ;
7 [label="gini = 0.0271\nsamples = 10\nvalue = [0, 0, 0, 789, 11, 0]"] ;
6 -> 7 ;
8 [label="gini = 0.0\nsamples = 2\nvalue = [0, 0, 200, 0, 0, 0]"] ;
6 -> 8 ;
9 [label="image.PixelUtils.<clinit> <= 0.5\ngini = 0.0761\nsamples = 122\nvalue = [2, 10758, 43, 397, 0, 0]"] ;
5 -> 9 ;
10 [label="image.TransferFilter.filterRGB <= 0.5\ngini = 0.0077\nsamples = 116\nvalue = [2, 10758, 40, 0, 0, 0]"] ;
9 -> 10 ;
11 [label="image.BufferedImage.setRGB <= 0.5\ngini = 0.001\nsamples = 85\nvalue = [2, 8097, 2, 0, 0, 0]"] ;
10 -> 11 ;
12 [label="gini = 0.0019\nsamples = 46\nvalue = [2, 4197, 2, 0, 0, 0]"] ;
11 -> 12 ;
13 [label="gini = 0.0\nsamples = 39\nvalue = [0, 3900, 0, 0, 0, 0]"] ;
11 -> 13 ;
14 [label="image.SolarizeFilter.transferFunction <= 0.5\ngini = 0.0278\nsamples = 31\nvalue = [0, 2661, 38, 0, 0, 0]"] ;
10 -> 14 ;
15 [label="gini = 0.0222\nsamples = 18\nvalue = [0, 1582, 18, 0, 0, 0]"] ;
14 -> 15 ;
16 [label="gini = 0.0357\nsamples = 13\nvalue = [0, 1079, 20, 0, 0, 0]"] ;
14 -> 16 ;
17 [label="gini = 0.0149\nsamples = 6\nvalue = [0, 0, 3, 397, 0, 0]"] ;
9 -> 17 ;
18 [label="gini = 0.088\nsamples = 44\nvalue = [0, 0, 111, 2295, 0, 0]"] ;
4 -> 18 ;
19 [label="gini = 0.0524\nsamples = 40\nvalue = [0, 0, 0, 0, 105, 3795]"] ;
3 -> 19 ;
20 [label="image.LightFilter.setFromRGB <= 0.5\ngini = 0.3429\nsamples = 175\nvalue = [0, 38, 11042, 64, 2959, 0]"] ;
0 -> 20 [labeldistance=2.5, labelangle=-45, headlabel="False"] ;
21 [label="image.SmearFilter.filterPixelsHelper <= 0.5\ngini = 0.0109\nsamples = 134\nvalue = [0, 38, 11042, 23, 0, 0]"] ;
20 -> 21 ;
22 [label="image.ImageMath.triangle <= 0.5\ngini = 0.0086\nsamples = 130\nvalue = [0, 38, 10856, 9, 0, 0]"] ;
21 -> 22 ;
23 [label="image.AbstractBufferedImageOp.setRGB <= 0.5\ngini = 0.0129\nsamples = 72\nvalue = [0, 36, 5666, 1, 0, 0]"] ;
22 -> 23 ;
24 [label="gini = 0.0139\nsamples = 37\nvalue = [0, 21, 2979, 0, 0, 0]"] ;
23 -> 24 ;
25 [label="lang.Math.floor <= 0.5\ngini = 0.0118\nsamples = 35\nvalue = [0, 15, 2687, 1, 0, 0]"] ;
23 -> 25 ;
26 [label="gini = 0.0125\nsamples = 26\nvalue = [0, 11, 1891, 1, 0, 0]"] ;
25 -> 26 ;
27 [label="gini = 0.01\nsamples = 9\nvalue = [0, 4, 796, 0, 0, 0]"] ;
25 -> 27 ;
28 [label="gini = 0.0038\nsamples = 58\nvalue = [0, 2, 5190, 8, 0, 0]"] ;
22 -> 28 ;
29 [label="gini = 0.1302\nsamples = 4\nvalue = [0, 0, 186, 14, 0, 0]"] ;
21 -> 29 ;
30 [label="gini = 0.027\nsamples = 41\nvalue = [0, 0, 0, 41, 2959, 0]"] ;
20 -> 30 ;
}