digraph Tree {
node [shape=box] ;
0 [label="image.BufferedImage.getHeight <= 0.5\ngini = 0.7887\nsamples = 481\nvalue = [8902, 11395, 10999, 3256, 3074, 3995]"] ;
1 [label="gini = 0.022\nsamples = 90\nvalue = [8900, 0, 0, 0, 0, 100]"] ;
0 -> 1 [labeldistance=2.5, labelangle=45, headlabel="True"] ;
2 [label="lang.Math.sqrt <= 0.5\ngini = 0.7312\nsamples = 391\nvalue = [2, 11395, 10999, 3256, 3074, 3895]"] ;
0 -> 2 [labeldistance=2.5, labelangle=-45, headlabel="False"] ;
3 [label="image.AbstractBufferedImageOp.setRGB <= 0.5\ngini = 0.5682\nsamples = 221\nvalue = [2, 11358, 353, 3192, 116, 3895]"] ;
2 -> 3 ;
4 [label="math.Noise.<clinit> <= 0.5\ngini = 0.3738\nsamples = 180\nvalue = [2, 11358, 353, 3192, 11, 0]"] ;
3 -> 4 ;
5 [label="image.BufferedImage.getType <= 0.5\ngini = 0.1924\nsamples = 138\nvalue = [2, 11358, 242, 1086, 11, 0]"] ;
4 -> 5 ;
6 [label="Graphics2D.setRenderingHint <= 0.5\ngini = 0.3644\nsamples = 11\nvalue = [0, 0, 200, 689, 11, 0]"] ;
5 -> 6 ;
7 [label="gini = 0.0\nsamples = 2\nvalue = [0, 0, 200, 0, 0, 0]"] ;
6 -> 7 ;
8 [label="gini = 0.0309\nsamples = 9\nvalue = [0, 0, 0, 689, 11, 0]"] ;
6 -> 8 ;
9 [label="image.WholeImageFilter.filter <= 0.5\ngini = 0.0722\nsamples = 127\nvalue = [2, 11358, 42, 397, 0, 0]"] ;
5 -> 9 ;
10 [label="image.TransferFilter.filter <= 0.5\ngini = 0.0072\nsamples = 121\nvalue = [2, 11358, 39, 0, 0, 0]"] ;
9 -> 10 ;
11 [label="image.FlipFilter.filter <= 0.5\ngini = 0.0007\nsamples = 88\nvalue = [2, 8497, 1, 0, 0, 0]"] ;
10 -> 11 ;
12 [label="gini = 0.0\nsamples = 43\nvalue = [0, 4300, 0, 0, 0, 0]"] ;
11 -> 12 ;
13 [label="gini = 0.0014\nsamples = 45\nvalue = [2, 4197, 1, 0, 0, 0]"] ;
11 -> 13 ;
14 [label="image.RescaleFilter.transferFunction <= 0.5\ngini = 0.0259\nsamples = 33\nvalue = [0, 2861, 38, 0, 0, 0]"] ;
10 -> 14 ;
15 [label="gini = 0.0357\nsamples = 13\nvalue = [0, 1079, 20, 0, 0, 0]"] ;
14 -> 15 ;
16 [label="gini = 0.0198\nsamples = 20\nvalue = [0, 1782, 18, 0, 0, 0]"] ;
14 -> 16 ;
17 [label="gini = 0.0149\nsamples = 6\nvalue = [0, 0, 3, 397, 0, 0]"] ;
9 -> 17 ;
18 [label="gini = 0.0951\nsamples = 42\nvalue = [0, 0, 111, 2106, 0, 0]"] ;
4 -> 18 ;
19 [label="gini = 0.0511\nsamples = 41\nvalue = [0, 0, 0, 0, 105, 3895]"] ;
3 -> 19 ;
20 [label="image.LightFilter.setFromRGB <= 0.5\ngini = 0.35\nsamples = 170\nvalue = [0, 37, 10646, 64, 2958, 0]"] ;
2 -> 20 ;
21 [label="image.SmearFilter.filterPixels <= 0.5\ngini = 0.0112\nsamples = 129\nvalue = [0, 37, 10646, 23, 0, 0]"] ;
20 -> 21 ;
22 [label="image.ImageMath.triangle <= 0.5\ngini = 0.0087\nsamples = 125\nvalue = [0, 37, 10460, 9, 0, 0]"] ;
21 -> 22 ;
23 [label="image.TwirlFilter.transformInverseHelper <= 0.5\ngini = 0.0132\nsamples = 68\nvalue = [0, 35, 5365, 1, 0, 0]"] ;
22 -> 23 ;
24 [label="image.ImageMath.bilinearInterpolate <= 0.5\ngini = 0.0122\nsamples = 34\nvalue = [0, 15, 2584, 1, 0, 0]"] ;
23 -> 24 ;
25 [label="gini = 0.0126\nsamples = 26\nvalue = [0, 11, 1888, 1, 0, 0]"] ;
24 -> 25 ;
26 [label="gini = 0.0114\nsamples = 8\nvalue = [0, 4, 696, 0, 0, 0]"] ;
24 -> 26 ;
27 [label="gini = 0.0142\nsamples = 34\nvalue = [0, 20, 2781, 0, 0, 0]"] ;
23 -> 27 ;
28 [label="gini = 0.0039\nsamples = 57\nvalue = [0, 2, 5095, 8, 0, 0]"] ;
22 -> 28 ;
29 [label="gini = 0.1302\nsamples = 4\nvalue = [0, 0, 186, 14, 0, 0]"] ;
21 -> 29 ;
30 [label="gini = 0.027\nsamples = 41\nvalue = [0, 0, 0, 41, 2958, 0]"] ;
20 -> 30 ;
}